<?xml version="1.0"?>
<opencv_storage>
<cascade>
  <stageType>BOOST</stageType>
  <featureType>HAAR</featureType>
  <height>10</height>
  <width>10</width>
  <stageParams>
    <boostType>GAB</boostType>
    <minHitRate>9.9500000476837158e-01</minHitRate>
    <maxFalseAlarm>5.0000000000000000e-01</maxFalseAlarm>
    <weightTrimRate>9.4999999999999996e-01</weightTrimRate>
    <maxDepth>1</maxDepth>
    <maxWeakCount>100</maxWeakCount></stageParams>
  <featureParams>
    <maxCatCount>0</maxCatCount>
    <featSize>1</featSize>
    <mode>ALL</mode></featureParams>
  <stageNum>10</stageNum>
  <stages>
    <!-- stage 0 -->
    <_>
      <maxWeakCount>3</maxWeakCount>
      <stageThreshold>-9.3358588218688965e-01</stageThreshold>
      <weakClassifiers>
        <_>
          <internalNodes>
            0 -1 75 -1.7780827358365059e-02</internalNodes>
          <leafValues>
            8.7295287847518921e-01 -8.0000001192092896e-01</leafValues></_>
        <_>
          <internalNodes>
            0 -1 2 2.7471151202917099e-02</internalNodes>
          <leafValues>
            -7.4104970693588257e-01 7.4784678220748901e-01</leafValues></_>
        <_>
          <internalNodes>
            0 -1 18 -3.5001143813133240e-02</internalNodes>
          <leafValues>
            6.0746383666992188e-01 -5.9517282247543335e-01</leafValues></_></weakClassifiers></_>
    <!-- stage 1 -->
    <_>
      <maxWeakCount>7</maxWeakCount>
      <stageThreshold>-1.0282505750656128e+00</stageThreshold>
      <weakClassifiers>
        <_>
          <internalNodes>
            0 -1 74 -5.6889016181230545e-02</internalNodes>
          <leafValues>
            8.2649350166320801e-01 -6.0327869653701782e-01</leafValues></_>
        <_>
          <internalNodes>
            0 -1 5 3.0362814664840698e-02</internalNodes>
          <leafValues>
            -5.1001048088073730e-01 7.3120194673538208e-01</leafValues></_>
        <_>
          <internalNodes>
            0 -1 35 -5.4652698338031769e-02</internalNodes>
          <leafValues>
            7.4057078361511230e-01 -3.8725894689559937e-01</leafValues></_>
        <_>
          <internalNodes>
            0 -1 44 -8.6026417557150126e-04</internalNodes>
          <leafValues>
            4.2748162150382996e-01 -7.6356410980224609e-01</leafValues></_>
        <_>
          <internalNodes>
            0 -1 48 1.3617957010865211e-02</internalNodes>
          <leafValues>
            -7.7946388721466064e-01 3.4281119704246521e-01</leafValues></_>
        <_>
          <internalNodes>
            0 -1 30 -7.8967539593577385e-03</internalNodes>
          <leafValues>
            -8.5758858919143677e-01 2.4427017569541931e-01</leafValues></_>
        <_>
          <internalNodes>
            0 -1 20 -5.0183922052383423e-02</internalNodes>
          <leafValues>
            6.4878028631210327e-01 -3.8551703095436096e-01</leafValues></_></weakClassifiers></_>
    <!-- stage 2 -->
    <_>
      <maxWeakCount>7</maxWeakCount>
      <stageThreshold>-9.1705530881881714e-01</stageThreshold>
      <weakClassifiers>
        <_>
          <internalNodes>
            0 -1 67 8.7949052453041077e-02</internalNodes>
          <leafValues>
            -5.2507835626602173e-01 8.1594437360763550e-01</leafValues></_>
        <_>
          <internalNodes>
            0 -1 6 4.6845622360706329e-02</internalNodes>
          <leafValues>
            -5.5611765384674072e-01 5.8276009559631348e-01</leafValues></_>
        <_>
          <internalNodes>
            0 -1 70 -2.8296357020735741e-02</internalNodes>
          <leafValues>
            4.2729941010475159e-01 -5.5621021986007690e-01</leafValues></_>
        <_>
          <internalNodes>
            0 -1 25 -9.0632900595664978e-02</internalNodes>
          <leafValues>
            6.1836451292037964e-01 -3.5598501563072205e-01</leafValues></_>
        <_>
          <internalNodes>
            0 -1 28 -6.8768444471061230e-03</internalNodes>
          <leafValues>
            -8.4615123271942139e-01 2.7395793795585632e-01</leafValues></_>
        <_>
          <internalNodes>
            0 -1 62 -1.0351322591304779e-02</internalNodes>
          <leafValues>
            -9.1945481300354004e-01 2.6794025301933289e-01</leafValues></_>
        <_>
          <internalNodes>
            0 -1 54 -8.1125378608703613e-02</internalNodes>
          <leafValues>
            6.7103731632232666e-01 -3.4265190362930298e-01</leafValues></_></weakClassifiers></_>
    <!-- stage 3 -->
    <_>
      <maxWeakCount>8</maxWeakCount>
      <stageThreshold>-1.1830693483352661e+00</stageThreshold>
      <weakClassifiers>
        <_>
          <internalNodes>
            0 -1 13 3.7944510579109192e-01</internalNodes>
          <leafValues>
            -3.2504904270172119e-01 8.3663368225097656e-01</leafValues></_>
        <_>
          <internalNodes>
            0 -1 1 2.8090540319681168e-02</internalNodes>
          <leafValues>
            -4.6098059415817261e-01 6.0457247495651245e-01</leafValues></_>
        <_>
          <internalNodes>
            0 -1 63 4.4893600046634674e-02</internalNodes>
          <leafValues>
            -7.0867174863815308e-01 4.0307176113128662e-01</leafValues></_>
        <_>
          <internalNodes>
            0 -1 49 -7.3718741536140442e-02</internalNodes>
          <leafValues>
            5.8440446853637695e-01 -4.1014432907104492e-01</leafValues></_>
        <_>
          <internalNodes>
            0 -1 60 7.2542191483080387e-03</internalNodes>
          <leafValues>
            -4.9956929683685303e-01 3.9477208256721497e-01</leafValues></_>
        <_>
          <internalNodes>
            0 -1 57 3.7189040333032608e-02</internalNodes>
          <leafValues>
            -3.0151847004890442e-01 6.6807276010513306e-01</leafValues></_>
        <_>
          <internalNodes>
            0 -1 9 -1.6538526862859726e-02</internalNodes>
          <leafValues>
            3.8811588287353516e-01 -4.8356440663337708e-01</leafValues></_>
        <_>
          <internalNodes>
            0 -1 39 -1.6330804210156202e-03</internalNodes>
          <leafValues>
            -7.2427070140838623e-01 2.4040690064430237e-01</leafValues></_></weakClassifiers></_>
    <!-- stage 4 -->
    <_>
      <maxWeakCount>7</maxWeakCount>
      <stageThreshold>-1.0935324430465698e+00</stageThreshold>
      <weakClassifiers>
        <_>
          <internalNodes>
            0 -1 24 -5.4962426424026489e-02</internalNodes>
          <leafValues>
            8.3495777845382690e-01 -2.6774594187736511e-01</leafValues></_>
        <_>
          <internalNodes>
            0 -1 13 4.7639253735542297e-01</internalNodes>
          <leafValues>
            -2.4908234179019928e-01 7.8768348693847656e-01</leafValues></_>
        <_>
          <internalNodes>
            0 -1 48 1.9978651776909828e-02</internalNodes>
          <leafValues>
            -7.6886695623397827e-01 3.5423156619071960e-01</leafValues></_>
        <_>
          <internalNodes>
            0 -1 43 9.1895572841167450e-03</internalNodes>
          <leafValues>
            2.1399049460887909e-01 -9.2956417798995972e-01</leafValues></_>
        <_>
          <internalNodes>
            0 -1 11 7.0406985469162464e-03</internalNodes>
          <leafValues>
            -6.8231076002120972e-01 2.6176428794860840e-01</leafValues></_>
        <_>
          <internalNodes>
            0 -1 76 3.7532400339841843e-02</internalNodes>
          <leafValues>
            -5.3701275587081909e-01 3.3928343653678894e-01</leafValues></_>
        <_>
          <internalNodes>
            0 -1 45 -2.9796073213219643e-03</internalNodes>
          <leafValues>
            2.5342068076133728e-01 -7.3686468601226807e-01</leafValues></_></weakClassifiers></_>
    <!-- stage 5 -->
    <_>
      <maxWeakCount>10</maxWeakCount>
      <stageThreshold>-1.0523908138275146e+00</stageThreshold>
      <weakClassifiers>
        <_>
          <internalNodes>
            0 -1 37 4.6535223722457886e-02</internalNodes>
          <leafValues>
            -4.0944206714630127e-01 6.7272728681564331e-01</leafValues></_>
        <_>
          <internalNodes>
            0 -1 17 -2.0328286290168762e-01</internalNodes>
          <leafValues>
            5.7733148336410522e-01 -3.8542100787162781e-01</leafValues></_>
        <_>
          <internalNodes>
            0 -1 73 -2.7702234685420990e-02</internalNodes>
          <leafValues>
            3.9854460954666138e-01 -5.2441251277923584e-01</leafValues></_>
        <_>
          <internalNodes>
            0 -1 52 1.5846109017729759e-03</internalNodes>
          <leafValues>
            2.0717723667621613e-01 -8.3193838596343994e-01</leafValues></_>
        <_>
          <internalNodes>
            0 -1 34 -3.2215081155300140e-02</internalNodes>
          <leafValues>
            4.3631479144096375e-01 -4.1223978996276855e-01</leafValues></_>
        <_>
          <internalNodes>
            0 -1 64 9.6574332565069199e-04</internalNodes>
          <leafValues>
            3.0557164549827576e-01 -5.2874732017517090e-01</leafValues></_>
        <_>
          <internalNodes>
            0 -1 50 1.0068506002426147e-02</internalNodes>
          <leafValues>
            1.7540217936038971e-01 -8.0524772405624390e-01</leafValues></_>
        <_>
          <internalNodes>
            0 -1 58 5.2934493869543076e-03</internalNodes>
          <leafValues>
            -6.4975762367248535e-01 2.4024449288845062e-01</leafValues></_>
        <_>
          <internalNodes>
            0 -1 22 4.4034902006387711e-02</internalNodes>
          <leafValues>
            1.8481637537479401e-01 -7.7910399436950684e-01</leafValues></_>
        <_>
          <internalNodes>
            0 -1 19 -6.2111340463161469e-02</internalNodes>
          <leafValues>
            6.0718953609466553e-01 -2.4352627992630005e-01</leafValues></_></weakClassifiers></_>
    <!-- stage 6 -->
    <_>
      <maxWeakCount>10</maxWeakCount>
      <stageThreshold>-9.4693011045455933e-01</stageThreshold>
      <weakClassifiers>
        <_>
          <internalNodes>
            0 -1 27 6.5174251794815063e-02</internalNodes>
          <leafValues>
            -2.0586438477039337e-01 7.9045093059539795e-01</leafValues></_>
        <_>
          <internalNodes>
            0 -1 75 -3.3360984176397324e-02</internalNodes>
          <leafValues>
            4.2859518527984619e-01 -5.3611904382705688e-01</leafValues></_>
        <_>
          <internalNodes>
            0 -1 0 2.2730246186256409e-02</internalNodes>
          <leafValues>
            -5.7315558195114136e-01 3.2375380396842957e-01</leafValues></_>
        <_>
          <internalNodes>
            0 -1 41 -9.3174551147967577e-04</internalNodes>
          <leafValues>
            -7.4206960201263428e-01 2.0948304235935211e-01</leafValues></_>
        <_>
          <internalNodes>
            0 -1 33 7.4130669236183167e-03</internalNodes>
          <leafValues>
            1.7386926710605621e-01 -8.7428241968154907e-01</leafValues></_>
        <_>
          <internalNodes>
            0 -1 18 -6.9679349660873413e-02</internalNodes>
          <leafValues>
            3.5141301155090332e-01 -4.7360378503799438e-01</leafValues></_>
        <_>
          <internalNodes>
            0 -1 55 -5.7210281491279602e-02</internalNodes>
          <leafValues>
            5.1505887508392334e-01 -3.1689360737800598e-01</leafValues></_>
        <_>
          <internalNodes>
            0 -1 61 2.7633771300315857e-02</internalNodes>
          <leafValues>
            -2.7243965864181519e-01 5.2793449163436890e-01</leafValues></_>
        <_>
          <internalNodes>
            0 -1 32 -2.9367171227931976e-03</internalNodes>
          <leafValues>
            -8.1144464015960693e-01 2.0349672436714172e-01</leafValues></_>
        <_>
          <internalNodes>
            0 -1 16 5.7725377380847931e-02</internalNodes>
          <leafValues>
            1.7052245140075684e-01 -8.2805794477462769e-01</leafValues></_></weakClassifiers></_>
    <!-- stage 7 -->
    <_>
      <maxWeakCount>10</maxWeakCount>
      <stageThreshold>-1.4892412424087524e+00</stageThreshold>
      <weakClassifiers>
        <_>
          <internalNodes>
            0 -1 8 3.1007006764411926e-02</internalNodes>
          <leafValues>
            -4.1209301352500916e-01 6.2705314159393311e-01</leafValues></_>
        <_>
          <internalNodes>
            0 -1 36 -5.3976725786924362e-02</internalNodes>
          <leafValues>
            5.5472952127456665e-01 -3.9016214013099670e-01</leafValues></_>
        <_>
          <internalNodes>
            0 -1 66 3.5143144428730011e-02</internalNodes>
          <leafValues>
            -6.9597452878952026e-01 2.8935205936431885e-01</leafValues></_>
        <_>
          <internalNodes>
            0 -1 13 5.9193772077560425e-01</internalNodes>
          <leafValues>
            -2.4230180680751801e-01 7.3343706130981445e-01</leafValues></_>
        <_>
          <internalNodes>
            0 -1 29 1.5995804220438004e-02</internalNodes>
          <leafValues>
            -3.7670874595642090e-01 4.9478456377983093e-01</leafValues></_>
        <_>
          <internalNodes>
            0 -1 16 -2.5542579591274261e-02</internalNodes>
          <leafValues>
            -8.7689644098281860e-01 2.5261664390563965e-01</leafValues></_>
        <_>
          <internalNodes>
            0 -1 53 -1.8941010348498821e-03</internalNodes>
          <leafValues>
            -8.1142640113830566e-01 1.6847358644008636e-01</leafValues></_>
        <_>
          <internalNodes>
            0 -1 40 1.0445699095726013e-02</internalNodes>
          <leafValues>
            -7.0117408037185669e-01 1.7208808660507202e-01</leafValues></_>
        <_>
          <internalNodes>
            0 -1 69 1.4401968568563461e-02</internalNodes>
          <leafValues>
            1.5020090341567993e-01 -8.8252401351928711e-01</leafValues></_>
        <_>
          <internalNodes>
            0 -1 21 -6.7914940416812897e-02</internalNodes>
          <leafValues>
            8.5137206315994263e-01 -2.2744470834732056e-01</leafValues></_></weakClassifiers></_>
    <!-- stage 8 -->
    <_>
      <maxWeakCount>13</maxWeakCount>
      <stageThreshold>-1.1760817766189575e+00</stageThreshold>
      <weakClassifiers>
        <_>
          <internalNodes>
            0 -1 35 -5.5438160896301270e-02</internalNodes>
          <leafValues>
            6.0634607076644897e-01 -3.2624113559722900e-01</leafValues></_>
        <_>
          <internalNodes>
            0 -1 47 3.6296661943197250e-02</internalNodes>
          <leafValues>
            -7.6372742652893066e-01 2.9846948385238647e-01</leafValues></_>
        <_>
          <internalNodes>
            0 -1 15 3.1074680387973785e-02</internalNodes>
          <leafValues>
            -6.2224727869033813e-01 3.1950011849403381e-01</leafValues></_>
        <_>
          <internalNodes>
            0 -1 20 -7.4201896786689758e-02</internalNodes>
          <leafValues>
            4.3852463364601135e-01 -3.9591228961944580e-01</leafValues></_>
        <_>
          <internalNodes>
            0 -1 14 -4.2629428207874298e-03</internalNodes>
          <leafValues>
            3.8789531588554382e-01 -3.6836948990821838e-01</leafValues></_>
        <_>
          <internalNodes>
            0 -1 13 5.5765295028686523e-01</internalNodes>
          <leafValues>
            -2.8899827599525452e-01 5.3417259454727173e-01</leafValues></_>
        <_>
          <internalNodes>
            0 -1 45 7.7115057501941919e-04</internalNodes>
          <leafValues>
            2.0971296727657318e-01 -8.9352649450302124e-01</leafValues></_>
        <_>
          <internalNodes>
            0 -1 72 1.8743228167295456e-02</internalNodes>
          <leafValues>
            -3.2262703776359558e-01 4.9928969144821167e-01</leafValues></_>
        <_>
          <internalNodes>
            0 -1 71 -2.6868715882301331e-02</internalNodes>
          <leafValues>
            3.1706422567367554e-01 -3.8067638874053955e-01</leafValues></_>
        <_>
          <internalNodes>
            0 -1 31 -4.7211517812684178e-04</internalNodes>
          <leafValues>
            -6.8781399726867676e-01 1.7608265578746796e-01</leafValues></_>
        <_>
          <internalNodes>
            0 -1 59 6.1621647328138351e-02</internalNodes>
          <leafValues>
            1.4420132339000702e-01 -8.6518579721450806e-01</leafValues></_>
        <_>
          <internalNodes>
            0 -1 38 -7.4205145239830017e-02</internalNodes>
          <leafValues>
            -7.8040611743927002e-01 1.2927378714084625e-01</leafValues></_>
        <_>
          <internalNodes>
            0 -1 42 2.9029365628957748e-02</internalNodes>
          <leafValues>
            1.1378940939903259e-01 -8.0075871944427490e-01</leafValues></_></weakClassifiers></_>
    <!-- stage 9 -->
    <_>
      <maxWeakCount>14</maxWeakCount>
      <stageThreshold>-9.5067107677459717e-01</stageThreshold>
      <weakClassifiers>
        <_>
          <internalNodes>
            0 -1 7 -2.9650401324033737e-02</internalNodes>
          <leafValues>
            5.3711020946502686e-01 -4.2396312952041626e-01</leafValues></_>
        <_>
          <internalNodes>
            0 -1 55 -5.9906575828790665e-02</internalNodes>
          <leafValues>
            5.8438318967819214e-01 -3.1648257374763489e-01</leafValues></_>
        <_>
          <internalNodes>
            0 -1 56 -2.5817343965172768e-02</internalNodes>
          <leafValues>
            3.2505127787590027e-01 -5.6384897232055664e-01</leafValues></_>
        <_>
          <internalNodes>
            0 -1 77 1.9810222089290619e-02</internalNodes>
          <leafValues>
            -5.5856084823608398e-01 2.7953627705574036e-01</leafValues></_>
        <_>
          <internalNodes>
            0 -1 10 -4.4173769652843475e-02</internalNodes>
          <leafValues>
            -7.1154302358627319e-01 1.8419338762760162e-01</leafValues></_>
        <_>
          <internalNodes>
            0 -1 46 -1.0079462081193924e-03</internalNodes>
          <leafValues>
            -7.1169757843017578e-01 1.7103996872901917e-01</leafValues></_>
        <_>
          <internalNodes>
            0 -1 4 1.1809058487415314e-01</internalNodes>
          <leafValues>
            1.7813877761363983e-01 -6.9228345155715942e-01</leafValues></_>
        <_>
          <internalNodes>
            0 -1 51 1.1165767908096313e-02</internalNodes>
          <leafValues>
            -5.8008742332458496e-01 1.3017287850379944e-01</leafValues></_>
        <_>
          <internalNodes>
            0 -1 68 -5.5258162319660187e-04</internalNodes>
          <leafValues>
            -5.7481461763381958e-01 2.1257792413234711e-01</leafValues></_>
        <_>
          <internalNodes>
            0 -1 23 -1.8425669521093369e-02</internalNodes>
          <leafValues>
            -8.4947311878204346e-01 1.1128675192594528e-01</leafValues></_>
        <_>
          <internalNodes>
            0 -1 65 1.8503654748201370e-02</internalNodes>
          <leafValues>
            1.5142002701759338e-01 -6.1387103796005249e-01</leafValues></_>
        <_>
          <internalNodes>
            0 -1 3 9.8012862727046013e-03</internalNodes>
          <leafValues>
            -5.0578391551971436e-01 2.3499879240989685e-01</leafValues></_>
        <_>
          <internalNodes>
            0 -1 26 1.2939574196934700e-02</internalNodes>
          <leafValues>
            -2.9697149991989136e-01 3.7456548213958740e-01</leafValues></_>
        <_>
          <internalNodes>
            0 -1 12 -1.5061888098716736e-01</internalNodes>
          <leafValues>
            7.3106390237808228e-01 -1.4196923375129700e-01</leafValues></_></weakClassifiers></_></stages>
  <features>
    <_>
      <rects>
        <_>
          0 0 2 6 -1.</_>
        <_>
          0 0 1 3 2.</_>
        <_>
          1 3 1 3 2.</_></rects>
      <tilted>0</tilted></_>
    <_>
      <rects>
        <_>
          0 3 2 2 -1.</_>
        <_>
          1 3 1 2 2.</_></rects>
      <tilted>0</tilted></_>
    <_>
      <rects>
        <_>
          0 3 4 4 -1.</_>
        <_>
          1 3 2 4 2.</_></rects>
      <tilted>0</tilted></_>
    <_>
      <rects>
        <_>
          0 3 6 1 -1.</_>
        <_>
          2 3 2 1 3.</_></rects>
      <tilted>0</tilted></_>
    <_>
      <rects>
        <_>
          0 3 10 4 -1.</_>
        <_>
          5 3 5 4 2.</_></rects>
      <tilted>0</tilted></_>
    <_>
      <rects>
        <_>
          0 4 2 2 -1.</_>
        <_>
          1 4 1 2 2.</_></rects>
      <tilted>0</tilted></_>
    <_>
      <rects>
        <_>
          0 4 4 3 -1.</_>
        <_>
          1 4 2 3 2.</_></rects>
      <tilted>0</tilted></_>
    <_>
      <rects>
        <_>
          0 4 2 6 -1.</_>
        <_>
          0 4 1 3 2.</_>
        <_>
          1 7 1 3 2.</_></rects>
      <tilted>0</tilted></_>
    <_>
      <rects>
        <_>
          0 5 2 2 -1.</_>
        <_>
          1 5 1 2 2.</_></rects>
      <tilted>0</tilted></_>
    <_>
      <rects>
        <_>
          0 5 2 4 -1.</_>
        <_>
          0 5 1 2 2.</_>
        <_>
          1 7 1 2 2.</_></rects>
      <tilted>0</tilted></_>
    <_>
      <rects>
        <_>
          0 5 10 2 -1.</_>
        <_>
          5 5 5 2 2.</_></rects>
      <tilted>0</tilted></_>
    <_>
      <rects>
        <_>
          0 6 6 1 -1.</_>
        <_>
          2 6 2 1 3.</_></rects>
      <tilted>0</tilted></_>
    <_>
      <rects>
        <_>
          1 0 9 4 -1.</_>
        <_>
          1 2 9 2 2.</_></rects>
      <tilted>0</tilted></_>
    <_>
      <rects>
        <_>
          1 1 8 8 -1.</_>
        <_>
          1 3 8 4 2.</_></rects>
      <tilted>0</tilted></_>
    <_>
      <rects>
        <_>
          1 3 2 2 -1.</_>
        <_>
          1 3 1 1 2.</_>
        <_>
          2 4 1 1 2.</_></rects>
      <tilted>0</tilted></_>
    <_>
      <rects>
        <_>
          1 3 4 1 -1.</_>
        <_>
          2 4 2 1 2.</_></rects>
      <tilted>1</tilted></_>
    <_>
      <rects>
        <_>
          1 4 8 2 -1.</_>
        <_>
          5 4 4 2 2.</_></rects>
      <tilted>0</tilted></_>
    <_>
      <rects>
        <_>
          1 5 8 4 -1.</_>
        <_>
          1 7 8 2 2.</_></rects>
      <tilted>0</tilted></_>
    <_>
      <rects>
        <_>
          1 6 8 4 -1.</_>
        <_>
          1 7 8 2 2.</_></rects>
      <tilted>0</tilted></_>
    <_>
      <rects>
        <_>
          2 0 3 3 -1.</_>
        <_>
          2 1 3 1 3.</_></rects>
      <tilted>0</tilted></_>
    <_>
      <rects>
        <_>
          2 0 5 3 -1.</_>
        <_>
          2 1 5 1 3.</_></rects>
      <tilted>0</tilted></_>
    <_>
      <rects>
        <_>
          2 1 2 3 -1.</_>
        <_>
          2 2 2 1 3.</_></rects>
      <tilted>0</tilted></_>
    <_>
      <rects>
        <_>
          2 3 4 4 -1.</_>
        <_>
          4 3 2 4 2.</_></rects>
      <tilted>0</tilted></_>
    <_>
      <rects>
        <_>
          2 5 4 2 -1.</_>
        <_>
          2 6 4 1 2.</_></rects>
      <tilted>0</tilted></_>
    <_>
      <rects>
        <_>
          2 7 4 2 -1.</_>
        <_>
          2 8 4 1 2.</_></rects>
      <tilted>0</tilted></_>
    <_>
      <rects>
        <_>
          2 7 6 3 -1.</_>
        <_>
          2 8 6 1 3.</_></rects>
      <tilted>0</tilted></_>
    <_>
      <rects>
        <_>
          3 1 1 3 -1.</_>
        <_>
          3 2 1 1 3.</_></rects>
      <tilted>0</tilted></_>
    <_>
      <rects>
        <_>
          3 1 5 2 -1.</_>
        <_>
          3 2 5 1 2.</_></rects>
      <tilted>0</tilted></_>
    <_>
      <rects>
        <_>
          3 3 4 4 -1.</_>
        <_>
          5 3 2 4 2.</_></rects>
      <tilted>0</tilted></_>
    <_>
      <rects>
        <_>
          3 4 4 1 -1.</_>
        <_>
          4 4 2 1 2.</_></rects>
      <tilted>0</tilted></_>
    <_>
      <rects>
        <_>
          3 4 3 3 -1.</_>
        <_>
          4 4 1 3 3.</_></rects>
      <tilted>0</tilted></_>
    <_>
      <rects>
        <_>
          3 4 4 1 -1.</_>
        <_>
          5 4 2 1 2.</_></rects>
      <tilted>0</tilted></_>
    <_>
      <rects>
        <_>
          3 4 4 3 -1.</_>
        <_>
          5 4 2 3 2.</_></rects>
      <tilted>0</tilted></_>
    <_>
      <rects>
        <_>
          3 4 4 3 -1.</_>
        <_>
          3 5 4 1 3.</_></rects>
      <tilted>0</tilted></_>
    <_>
      <rects>
        <_>
          3 7 2 3 -1.</_>
        <_>
          3 8 2 1 3.</_></rects>
      <tilted>0</tilted></_>
    <_>
      <rects>
        <_>
          3 7 4 3 -1.</_>
        <_>
          3 8 4 1 3.</_></rects>
      <tilted>0</tilted></_>
    <_>
      <rects>
        <_>
          4 0 4 3 -1.</_>
        <_>
          4 1 4 1 3.</_></rects>
      <tilted>0</tilted></_>
    <_>
      <rects>
        <_>
          4 1 1 4 -1.</_>
        <_>
          3 2 1 2 2.</_></rects>
      <tilted>1</tilted></_>
    <_>
      <rects>
        <_>
          4 1 6 2 -1.</_>
        <_>
          4 1 3 2 2.</_></rects>
      <tilted>1</tilted></_>
    <_>
      <rects>
        <_>
          4 3 3 3 -1.</_>
        <_>
          5 4 1 1 9.</_></rects>
      <tilted>0</tilted></_>
    <_>
      <rects>
        <_>
          4 3 6 1 -1.</_>
        <_>
          6 3 2 1 3.</_></rects>
      <tilted>0</tilted></_>
    <_>
      <rects>
        <_>
          4 3 2 4 -1.</_>
        <_>
          4 4 2 2 2.</_></rects>
      <tilted>0</tilted></_>
    <_>
      <rects>
        <_>
          4 3 4 4 -1.</_>
        <_>
          4 4 4 2 2.</_></rects>
      <tilted>0</tilted></_>
    <_>
      <rects>
        <_>
          4 4 2 1 -1.</_>
        <_>
          4 4 1 1 2.</_></rects>
      <tilted>1</tilted></_>
    <_>
      <rects>
        <_>
          4 4 2 2 -1.</_>
        <_>
          4 5 2 1 2.</_></rects>
      <tilted>0</tilted></_>
    <_>
      <rects>
        <_>
          4 4 3 2 -1.</_>
        <_>
          4 5 3 1 2.</_></rects>
      <tilted>0</tilted></_>
    <_>
      <rects>
        <_>
          4 5 2 2 -1.</_>
        <_>
          4 5 1 1 2.</_>
        <_>
          5 6 1 1 2.</_></rects>
      <tilted>0</tilted></_>
    <_>
      <rects>
        <_>
          4 5 6 2 -1.</_>
        <_>
          6 5 2 2 3.</_></rects>
      <tilted>0</tilted></_>
    <_>
      <rects>
        <_>
          4 6 6 1 -1.</_>
        <_>
          6 6 2 1 3.</_></rects>
      <tilted>0</tilted></_>
    <_>
      <rects>
        <_>
          4 7 4 3 -1.</_>
        <_>
          4 8 4 1 3.</_></rects>
      <tilted>0</tilted></_>
    <_>
      <rects>
        <_>
          5 2 4 1 -1.</_>
        <_>
          5 2 2 1 2.</_></rects>
      <tilted>1</tilted></_>
    <_>
      <rects>
        <_>
          5 3 3 2 -1.</_>
        <_>
          5 3 3 1 2.</_></rects>
      <tilted>1</tilted></_>
    <_>
      <rects>
        <_>
          5 4 1 3 -1.</_>
        <_>
          5 5 1 1 3.</_></rects>
      <tilted>0</tilted></_>
    <_>
      <rects>
        <_>
          5 4 2 1 -1.</_>
        <_>
          5 4 1 1 2.</_></rects>
      <tilted>1</tilted></_>
    <_>
      <rects>
        <_>
          5 6 4 3 -1.</_>
        <_>
          5 7 4 1 3.</_></rects>
      <tilted>0</tilted></_>
    <_>
      <rects>
        <_>
          5 7 3 2 -1.</_>
        <_>
          5 8 3 1 2.</_></rects>
      <tilted>0</tilted></_>
    <_>
      <rects>
        <_>
          6 1 2 3 -1.</_>
        <_>
          6 1 1 3 2.</_></rects>
      <tilted>1</tilted></_>
    <_>
      <rects>
        <_>
          6 1 2 3 -1.</_>
        <_>
          6 2 2 1 3.</_></rects>
      <tilted>0</tilted></_>
    <_>
      <rects>
        <_>
          6 2 2 3 -1.</_>
        <_>
          5 3 2 1 3.</_></rects>
      <tilted>1</tilted></_>
    <_>
      <rects>
        <_>
          6 2 2 4 -1.</_>
        <_>
          6 2 2 2 2.</_></rects>
      <tilted>1</tilted></_>
    <_>
      <rects>
        <_>
          6 3 3 1 -1.</_>
        <_>
          7 3 1 1 3.</_></rects>
      <tilted>0</tilted></_>
    <_>
      <rects>
        <_>
          6 3 2 3 -1.</_>
        <_>
          7 3 1 3 2.</_></rects>
      <tilted>0</tilted></_>
    <_>
      <rects>
        <_>
          6 3 2 3 -1.</_>
        <_>
          6 3 1 3 2.</_></rects>
      <tilted>1</tilted></_>
    <_>
      <rects>
        <_>
          6 3 4 4 -1.</_>
        <_>
          7 3 2 4 2.</_></rects>
      <tilted>0</tilted></_>
    <_>
      <rects>
        <_>
          6 3 2 2 -1.</_>
        <_>
          6 4 2 1 2.</_></rects>
      <tilted>0</tilted></_>
    <_>
      <rects>
        <_>
          6 3 4 3 -1.</_>
        <_>
          6 4 4 1 3.</_></rects>
      <tilted>0</tilted></_>
    <_>
      <rects>
        <_>
          6 4 4 3 -1.</_>
        <_>
          7 4 2 3 2.</_></rects>
      <tilted>0</tilted></_>
    <_>
      <rects>
        <_>
          7 1 2 8 -1.</_>
        <_>
          7 3 2 4 2.</_></rects>
      <tilted>0</tilted></_>
    <_>
      <rects>
        <_>
          7 3 2 2 -1.</_>
        <_>
          7 3 1 1 2.</_>
        <_>
          8 4 1 1 2.</_></rects>
      <tilted>0</tilted></_>
    <_>
      <rects>
        <_>
          7 4 1 2 -1.</_>
        <_>
          7 4 1 1 2.</_></rects>
      <tilted>1</tilted></_>
    <_>
      <rects>
        <_>
          8 0 2 6 -1.</_>
        <_>
          8 0 1 3 2.</_>
        <_>
          9 3 1 3 2.</_></rects>
      <tilted>0</tilted></_>
    <_>
      <rects>
        <_>
          8 1 2 4 -1.</_>
        <_>
          8 1 1 2 2.</_>
        <_>
          9 3 1 2 2.</_></rects>
      <tilted>0</tilted></_>
    <_>
      <rects>
        <_>
          8 2 1 2 -1.</_>
        <_>
          8 2 1 1 2.</_></rects>
      <tilted>1</tilted></_>
    <_>
      <rects>
        <_>
          8 3 2 2 -1.</_>
        <_>
          9 3 1 2 2.</_></rects>
      <tilted>0</tilted></_>
    <_>
      <rects>
        <_>
          8 3 2 4 -1.</_>
        <_>
          9 3 1 4 2.</_></rects>
      <tilted>0</tilted></_>
    <_>
      <rects>
        <_>
          8 4 2 2 -1.</_>
        <_>
          9 4 1 2 2.</_></rects>
      <tilted>0</tilted></_>
    <_>
      <rects>
        <_>
          8 4 2 6 -1.</_>
        <_>
          8 4 1 3 2.</_>
        <_>
          9 7 1 3 2.</_></rects>
      <tilted>0</tilted></_>
    <_>
      <rects>
        <_>
          8 5 2 4 -1.</_>
        <_>
          8 5 1 2 2.</_>
        <_>
          9 7 1 2 2.</_></rects>
      <tilted>0</tilted></_></features></cascade>
</opencv_storage>
