<?xml version="1.0"?>
<opencv_storage>
<stage20>
  <maxWeakCount>5</maxWeakCount>
  <stageThreshold>-4.8845449090003967e-01</stageThreshold>
  <weakClassifiers>
    <_>
      <internalNodes>
        0 -1 790 5.1051855087280273e-02</internalNodes>
      <leafValues>
        -1.9753846526145935e-01 7.7368420362472534e-01</leafValues></_>
    <_>
      <internalNodes>
        0 -1 4299 -4.5516658574342728e-03</internalNodes>
      <leafValues>
        1. -1.7938373982906342e-01</leafValues></_>
    <_>
      <internalNodes>
        0 -1 6311 1.6000661998987198e-02</internalNodes>
      <leafValues>
        -3.3901795744895935e-01 7.0517718791961670e-01</leafValues></_>
    <_>
      <internalNodes>
        0 -1 4046 6.4214970916509628e-04</internalNodes>
      <leafValues>
        7.1359634399414062e-01 -4.3722549080848694e-01</leafValues></_>
    <_>
      <internalNodes>
        0 -1 2596 -1.5469325706362724e-02</internalNodes>
      <leafValues>
        8.5504215955734253e-01 -3.7948399782180786e-01</leafValues></_></weakClassifiers></stage20>
</opencv_storage>
