<?xml version="1.0"?>
<opencv_storage>
<stage19>
  <maxWeakCount>14</maxWeakCount>
  <stageThreshold>-9.9869906902313232e-01</stageThreshold>
  <weakClassifiers>
    <_>
      <internalNodes>
        0 -1 4929 2.3121554404497147e-02</internalNodes>
      <leafValues>
        -4.8281505703926086e-01 4.5382794737815857e-01</leafValues></_>
    <_>
      <internalNodes>
        0 -1 737 2.5362689048051834e-02</internalNodes>
      <leafValues>
        2.7144682407379150e-01 -5.7144540548324585e-01</leafValues></_>
    <_>
      <internalNodes>
        0 -1 1811 -1.9443139899522066e-04</internalNodes>
      <leafValues>
        2.9536381363868713e-01 -5.1436120271682739e-01</leafValues></_>
    <_>
      <internalNodes>
        0 -1 5998 -4.2335707694292068e-02</internalNodes>
      <leafValues>
        3.8382670283317566e-01 -3.9133992791175842e-01</leafValues></_>
    <_>
      <internalNodes>
        0 -1 1533 -5.8762051165103912e-02</internalNodes>
      <leafValues>
        8.7595272064208984e-01 -1.6833229362964630e-01</leafValues></_>
    <_>
      <internalNodes>
        0 -1 1814 3.2407514750957489e-02</internalNodes>
      <leafValues>
        -4.6215927600860596e-01 2.8531876206398010e-01</leafValues></_>
    <_>
      <internalNodes>
        0 -1 364 1.9084838032722473e-01</internalNodes>
      <leafValues>
        1.6100120544433594e-01 -8.0003035068511963e-01</leafValues></_>
    <_>
      <internalNodes>
        0 -1 5522 -9.8804451525211334e-02</internalNodes>
      <leafValues>
        -8.3383792638778687e-01 1.6375796496868134e-01</leafValues></_>
    <_>
      <internalNodes>
        0 -1 1997 4.8719629645347595e-02</internalNodes>
      <leafValues>
        -1.7571909725666046e-01 9.5520973205566406e-01</leafValues></_>
    <_>
      <internalNodes>
        0 -1 4918 2.3354380391538143e-03</internalNodes>
      <leafValues>
        -3.7123125791549683e-01 4.2320150136947632e-01</leafValues></_>
    <_>
      <internalNodes>
        0 -1 536 1.1838169395923615e-01</internalNodes>
      <leafValues>
        1.8483078479766846e-01 -9.0442055463790894e-01</leafValues></_>
    <_>
      <internalNodes>
        0 -1 1611 5.2231383323669434e-01</internalNodes>
      <leafValues>
        -2.9366740584373474e-01 4.2809262871742249e-01</leafValues></_>
    <_>
      <internalNodes>
        0 -1 3670 3.9605954661965370e-03</internalNodes>
      <leafValues>
        -1.6336946189403534e-01 1.</leafValues></_>
    <_>
      <internalNodes>
        0 -1 5841 9.4871502369642258e-03</internalNodes>
      <leafValues>
        -3.6089864373207092e-01 3.8457998633384705e-01</leafValues></_></weakClassifiers></stage19>
</opencv_storage>
