<?xml version="1.0"?>
<opencv_storage>
<stage5>
  <maxWeakCount>10</maxWeakCount>
  <stageThreshold>-1.0523908138275146e+00</stageThreshold>
  <weakClassifiers>
    <_>
      <internalNodes>
        0 -1 4563 4.6535223722457886e-02</internalNodes>
      <leafValues>
        -4.0944206714630127e-01 6.7272728681564331e-01</leafValues></_>
    <_>
      <internalNodes>
        0 -1 2167 -2.0328286290168762e-01</internalNodes>
      <leafValues>
        5.7733148336410522e-01 -3.8542100787162781e-01</leafValues></_>
    <_>
      <internalNodes>
        0 -1 7334 -2.7702234685420990e-02</internalNodes>
      <leafValues>
        3.9854460954666138e-01 -5.2441251277923584e-01</leafValues></_>
    <_>
      <internalNodes>
        0 -1 5794 1.5846109017729759e-03</internalNodes>
      <leafValues>
        2.0717723667621613e-01 -8.3193838596343994e-01</leafValues></_>
    <_>
      <internalNodes>
        0 -1 4312 -3.2215081155300140e-02</internalNodes>
      <leafValues>
        4.3631479144096375e-01 -4.1223978996276855e-01</leafValues></_>
    <_>
      <internalNodes>
        0 -1 6459 9.6574332565069199e-04</internalNodes>
      <leafValues>
        3.0557164549827576e-01 -5.2874732017517090e-01</leafValues></_>
    <_>
      <internalNodes>
        0 -1 5638 1.0068506002426147e-02</internalNodes>
      <leafValues>
        1.7540217936038971e-01 -8.0524772405624390e-01</leafValues></_>
    <_>
      <internalNodes>
        0 -1 6361 5.2934493869543076e-03</internalNodes>
      <leafValues>
        -6.4975762367248535e-01 2.4024449288845062e-01</leafValues></_>
    <_>
      <internalNodes>
        0 -1 2976 4.4034902006387711e-02</internalNodes>
      <leafValues>
        1.8481637537479401e-01 -7.7910399436950684e-01</leafValues></_>
    <_>
      <internalNodes>
        0 -1 2462 -6.2111340463161469e-02</internalNodes>
      <leafValues>
        6.0718953609466553e-01 -2.4352627992630005e-01</leafValues></_></weakClassifiers></stage5>
</opencv_storage>
