<?xml version="1.0"?>
<opencv_storage>
<stage7>
  <maxWeakCount>10</maxWeakCount>
  <stageThreshold>-1.4892412424087524e+00</stageThreshold>
  <weakClassifiers>
    <_>
      <internalNodes>
        0 -1 929 3.1007006764411926e-02</internalNodes>
      <leafValues>
        -4.1209301352500916e-01 6.2705314159393311e-01</leafValues></_>
    <_>
      <internalNodes>
        0 -1 4509 -5.3976725786924362e-02</internalNodes>
      <leafValues>
        5.5472952127456665e-01 -3.9016214013099670e-01</leafValues></_>
    <_>
      <internalNodes>
        0 -1 6527 3.5143144428730011e-02</internalNodes>
      <leafValues>
        -6.9597452878952026e-01 2.8935205936431885e-01</leafValues></_>
    <_>
      <internalNodes>
        0 -1 1620 5.9193772077560425e-01</internalNodes>
      <leafValues>
        -2.4230180680751801e-01 7.3343706130981445e-01</leafValues></_>
    <_>
      <internalNodes>
        0 -1 4046 1.5995804220438004e-02</internalNodes>
      <leafValues>
        -3.7670874595642090e-01 4.9478456377983093e-01</leafValues></_>
    <_>
      <internalNodes>
        0 -1 2036 -2.5542579591274261e-02</internalNodes>
      <leafValues>
        -8.7689644098281860e-01 2.5261664390563965e-01</leafValues></_>
    <_>
      <internalNodes>
        0 -1 5799 -1.8941010348498821e-03</internalNodes>
      <leafValues>
        -8.1142640113830566e-01 1.6847358644008636e-01</leafValues></_>
    <_>
      <internalNodes>
        0 -1 4920 1.0445699095726013e-02</internalNodes>
      <leafValues>
        -7.0117408037185669e-01 1.7208808660507202e-01</leafValues></_>
    <_>
      <internalNodes>
        0 -1 7032 1.4401968568563461e-02</internalNodes>
      <leafValues>
        1.5020090341567993e-01 -8.8252401351928711e-01</leafValues></_>
    <_>
      <internalNodes>
        0 -1 2613 -6.7914940416812897e-02</internalNodes>
      <leafValues>
        8.5137206315994263e-01 -2.2744470834732056e-01</leafValues></_></weakClassifiers></stage7>
</opencv_storage>
