<?xml version="1.0"?>
<opencv_storage>
<stage11>
  <maxWeakCount>14</maxWeakCount>
  <stageThreshold>-8.1655156612396240e-01</stageThreshold>
  <weakClassifiers>
    <_>
      <internalNodes>
        0 -1 3209 5.5211149156093597e-02</internalNodes>
      <leafValues>
        -3.4285715222358704e-01 5.5011546611785889e-01</leafValues></_>
    <_>
      <internalNodes>
        0 -1 5256 -3.8783352822065353e-02</internalNodes>
      <leafValues>
        3.8267719745635986e-01 -3.5500103235244751e-01</leafValues></_>
    <_>
      <internalNodes>
        0 -1 7189 -1.9328363239765167e-02</internalNodes>
      <leafValues>
        2.0170043408870697e-01 -6.7821699380874634e-01</leafValues></_>
    <_>
      <internalNodes>
        0 -1 6203 6.5024949610233307e-02</internalNodes>
      <leafValues>
        1.3813078403472900e-01 -7.3693352937698364e-01</leafValues></_>
    <_>
      <internalNodes>
        0 -1 881 -4.4286616146564484e-02</internalNodes>
      <leafValues>
        -7.8294456005096436e-01 9.7283273935317993e-02</leafValues></_>
    <_>
      <internalNodes>
        0 -1 6656 -1.4579725451767445e-02</internalNodes>
      <leafValues>
        1.5195116400718689e-01 -6.2739753723144531e-01</leafValues></_>
    <_>
      <internalNodes>
        0 -1 3958 -1.5246765688061714e-02</internalNodes>
      <leafValues>
        -6.5006750822067261e-01 1.4153425395488739e-01</leafValues></_>
    <_>
      <internalNodes>
        0 -1 3885 -1.9043225795030594e-02</internalNodes>
      <leafValues>
        6.1773192882537842e-01 -1.9065557420253754e-01</leafValues></_>
    <_>
      <internalNodes>
        0 -1 2734 4.6740531921386719e-01</internalNodes>
      <leafValues>
        -3.0624449253082275e-01 3.8346147537231445e-01</leafValues></_>
    <_>
      <internalNodes>
        0 -1 4961 1.9072471186518669e-03</internalNodes>
      <leafValues>
        1.6979175806045532e-01 -6.8210476636886597e-01</leafValues></_>
    <_>
      <internalNodes>
        0 -1 2300 2.6102717965841293e-02</internalNodes>
      <leafValues>
        -1.6619032621383667e-01 6.2322574853897095e-01</leafValues></_>
    <_>
      <internalNodes>
        0 -1 4110 4.7176289372146130e-03</internalNodes>
      <leafValues>
        1.4933094382286072e-01 -7.1400278806686401e-01</leafValues></_>
    <_>
      <internalNodes>
        0 -1 4132 -2.8528254479169846e-02</internalNodes>
      <leafValues>
        -7.0758122205734253e-01 1.1686563491821289e-01</leafValues></_>
    <_>
      <internalNodes>
        0 -1 2082 5.6904228404164314e-03</internalNodes>
      <leafValues>
        -2.8943020105361938e-01 3.5157415270805359e-01</leafValues></_></weakClassifiers></stage11>
</opencv_storage>
