<?xml version="1.0"?>
<opencv_storage>
<stage0>
  <maxWeakCount>5</maxWeakCount>
  <stageThreshold>-1.2053958177566528e+00</stageThreshold>
  <weakClassifiers>
    <_>
      <internalNodes>
        0 -1 7371 -1.7780827358365059e-02</internalNodes>
      <leafValues>
        8.7295287847518921e-01 -8.0000001192092896e-01</leafValues></_>
    <_>
      <internalNodes>
        0 -1 651 2.7471151202917099e-02</internalNodes>
      <leafValues>
        -7.4104970693588257e-01 7.4784678220748901e-01</leafValues></_>
    <_>
      <internalNodes>
        0 -1 2251 -3.5001143813133240e-02</internalNodes>
      <leafValues>
        6.0746383666992188e-01 -5.9517282247543335e-01</leafValues></_>
    <_>
      <internalNodes>
        0 -1 5202 1.4769823290407658e-02</internalNodes>
      <leafValues>
        -7.5872671604156494e-01 4.5406407117843628e-01</leafValues></_>
    <_>
      <internalNodes>
        0 -1 5036 -1.5875931130722165e-03</internalNodes>
      <leafValues>
        4.8691678047180176e-01 -6.9223356246948242e-01</leafValues></_></weakClassifiers></stage0>
</opencv_storage>
